-2.177393674504856591e+01,4.582227189705691539e-01,7.040629607477326690e-01,-1.079223792166566359e-01,-3.462555234833324391e+00,3.533289555226526435e-01,-5.218258515661006181e-02,-2.416080317234008135e+01,1.610638737233179296e-01,2.267555851090760632e-01,2.313139233995875899e-01,7.027178381062119950e-02,-6.091390428687096126e+00,1.216101974197690144e-01,2.063762612081692649e-01,-1.708954464115105265e-01,-3.082986242177200298e-01,-4.898311795102681943e-02,3.235308136570250737e-01,-3.623483791966231049e+00,8.030256958772999942e-01
-1.225418670940225940e+00,-1.197831116254727095e-02,-1.626437928095040772e-02,1.518734392712247673e-02,-1.956809109207777522e-02,-1.701769676022587760e-02,-1.736258794718492093e-01,-6.099638096712762803e-01,1.080899208858478004e-02,3.301799251376580369e-03,-5.123205178522053510e-03,1.279978843630756868e-01,-6.046124081833161024e-02,9.718080600142924019e-02,1.466972014149737491e-01,2.786651327661648914e-02,3.792525997360892548e-02,-3.851390773554500685e-02,1.268632423146197064e-01,1.409405566138020177e-02,5.159032743663748838e-02
-1.161294811939409755e+00,1.073337951003893870e-01,3.398790097277012978e-02,-1.359015713752706467e-01,-4.032885633718895357e-02,-1.177737155922465792e-02,-4.907420372312117779e-02,6.223615613974649019e-01,-6.245376809204059715e-02,-5.182366093510838018e-02,2.264189466150302865e-02,-1.543343559640544260e-01,-1.347691692797444059e-02,-6.039759958459545684e-03,3.615882272796721794e-03,8.122262995859737267e-02,-1.876780321229730430e-01,3.572632808933064261e-03,-9.489265563909185519e-02,-7.017723747965134984e-02,1.044470295750811462e-01
-2.143306183168507673e+01,4.301108639595413452e-02,-4.000597093186991637e-02,-7.211382292213522338e-02,4.290166148400161639e+00,-2.597599027432857532e-01,5.016958380805279782e-01,2.620050377038913325e+01,3.033037436619139826e-01,-4.786118942565500411e-01,3.223914197973323532e-03,8.264588296407296975e-01,6.723049765259215604e+00,3.182106788135088404e-01,4.659376318135207556e-02,-3.077521038161902187e-02,8.763642847793809976e-01,2.930830066649969465e-02,1.331005003716678459e-01,4.073166286223195875e+00,-1.775851192871013451e+00
